function [y1] = NN_user3(x1)
%MYNEURALNETWORKFUNCTION neural network simulation function.
%
% Generated by Neural Network Toolbox function genFunction, 20-Oct-2016 16:14:11.
% 
% [y1] = myNeuralNetworkFunction(x1) takes these arguments:
%   x = 60xQ matrix, input #1
% and returns:
%   y = 1xQ matrix, output #1
% where Q is the number of samples.

%#ok<*RPMT0>

  % ===== NEURAL NETWORK CONSTANTS =====
  
  % Input 1
  x1_step1_xoffset = [-0.0100241845782767;-0.0270441235442621;-0.0457450932225528;-0.0314253875008645;-0.0209807415938663;-0.0593851676281507;-0.0244655345028255;-0.0296749561534585;-0.0366730032770301;-0.0273874424616174;-0.0181558414202529;-0.0335739355963871;-0.0185392062333688;-0.0205581233799338;-0.0337525162199843;-0.0194500668918755;-0.0193377409017417;-0.0156192129648346;-0.0303680844915941;-0.0398948591323347;-0.0255447774365991;-0.0225050740764348;-0.0418483504113361;-0.0404527574844328;-0.0278905675605949;-0.0229218713928203;-0.0362210650732934;-0.0328396158139733;-0.0562732968798222;-0.0225696202676886;-0.0341918001885224;-0.0467513259432291;-0.0273645745090136;-0.0395474005377236;-0.03509124709498;-0.0342653363593832;-0.0350858118132588;-0.0342833514146524;-0.0365199749069343;-0.0308385736040706;-0.0287927986477778;-0.0383919504371218;-0.00427224147390439;-0.0337570194634987;-0.0793158229227654;-0.0345323194084284;-0.0326999295959994;-0.034782912828887;-0.0255485931954319;-0.0242282632965845;-0.0921811213422402;-0.0204411069912563;-0.0520622657761383;-0.0249822080831901;-0.0348924791058538;-0.0666287651002926;-0.0437977377169352;-0.0694512144719796;-0.0373949674815943;-0.0297163333401463];
  x1_step1_gain = [23.2112206781432;27.3151316074378;21.516938393785;35.7976465691009;38.8956544430627;20.315555000546;31.6038299833616;28.676602705492;28.229470163609;36.3129971196509;34.7149964961647;29.460723512423;64.7981394230795;46.6002003755367;35.5360251418972;89.9592630216289;28.4745941306488;33.7351154545328;52.4151781137273;28.7106021898121;26.7128308562399;40.459731401703;26.094698926506;28.2638077667241;33.0860079408276;25.3523878013339;35.600971762477;35.232867971285;23.7415902766982;35.3356881361242;25.9910574029612;25.7712344986154;29.45662554649;50.5722240351103;29.3926538061643;32.8975611808619;24.7550837441342;32.5399735555185;25.3096889860165;29.5097939926536;34.990179647213;29.0604931172045;48.2815992359936;30.7554984206015;18.6487427738321;31.8716870492213;30.8609512501829;33.5052988600196;24.034946607696;28.1258931658927;18.2040539912145;72.2023636936844;27.0719549685782;20.408303548166;27.937416459348;19.1958243616094;25.8564402835266;21.3570864391204;29.2453377506014;26.1062518115363];
  x1_step1_ymin = -1;
  
  % Layer 1
  b1 = [-1.4589109229699728;1.2928367376682628;1.502563934837152;1.2809756354721022;1.1102630506962048;1.0844275786517121;-1.196579331374173;-1.0861716541845148;1.0431020240156361;-0.83022204022182267;0.73109461169194767;-0.78941339610177108;0.84455289704944425;-0.77382208091187321;0.75880044984050066;-0.60636612125967482;0.42227381939489816;0.64929010241880969;0.37754108148934257;-0.35830665899757697;-0.22938648382061311;-0.23785485137413678;-0.34772490910019416;0.022985435791280106;0.035862333711653788;-0.14183095254691724;-0.098755970793539483;0.15143807434418144;0.22286609333306354;0.32976929536063165;0.332242916265235;0.39057881015586043;-0.61794658831179372;-0.4108884653804864;0.4025502500267123;0.7004247958056915;-0.58850201107077038;0.63960875290089325;-0.66427469477602374;-0.93180321242100206;-0.83070401823525919;-1.0687661741239194;1.0759429802581033;-1.1397657886511043;-1.1682703367485254;1.1569408112471176;1.3049285586618937;1.376009945090573;-1.477476511885581;-1.5028718000176604];
  IW1_1 = [0.28413254879166427 0.31209147276459814 0.098804174130013106 0.33516698114892313 0.22046727221589876 -0.1293344419594801 -0.018487012762837891 0.026447392734342972 0.071416602327745743 -0.026183187681697966 0.054049956912136814 0.30789790077186829 -0.098975039707590959 0.15262521152851932 -0.22318415190465984 -0.1892742953376351 0.31225484955940302 0.0048420921282414644 0.29295452881014294 -0.13053352264546073 -0.089904732187767386 0.17894027557680287 0.22525740754779774 0.15480034117468486 0.32401706522719137 -0.13504130151432597 -0.24617462416494854 0.14454143950755508 -0.13256467424495499 0.15430691275088165 0.030106818079722639 -0.25832312728733314 -0.28770318743099349 -0.23353641418488755 0.23726942641303003 -0.20243217195789376 0.032519846981962905 -0.14237994020842401 -0.19620539538389356 -0.1139092035319398 0.061049706817748267 0.12814151868441725 0.15225975809588502 0.20706346698567213 0.19964171479039799 0.11937583459827969 -0.14710500690129655 0.26618161392078182 0.28501674402743032 -0.29137159287162995 0.10874444390997261 0.049119001212398913 0.29129507473369931 -0.18578008836938964 -0.09911463648254995 -0.30099155028681757 -0.1345257641615423 0.077699471590105512 -0.20731942538237499 -0.24699575277243371;-0.10458981358345674 0.33619481928096701 -0.27618938527295361 0.49340547540021046 -0.29968423863121385 0.11559619739544499 -0.26546439027801344 -0.020562216597813918 -0.43635716359951776 -0.04691270342566748 -0.32490327762562748 -0.33083999771455619 0.15194219711199997 -0.083486474056390314 0.34843604633338732 -0.0016467185024604241 0.23477464902182296 0.15993131558293028 -0.12833139874126542 -0.18740284149230468 0.26458610968562135 -0.19739800645502747 0.14786833245228076 0.030543162406759302 0.38470301665586459 0.11383923031744382 -0.29708570258578543 0.15164120484269877 0.018965183869149145 0.31256438371844503 0.32251327689840176 0.098987062130021494 0.21831706102399107 0.060414899625775884 -0.32144711663418252 -0.38924499107842558 -0.19422981597644598 0.22183895658637129 0.18929435214635587 0.15089659572108702 -0.11255764515239146 0.20961201591183728 0.17274666515801468 -0.31283497995882348 0.32549856551344036 -0.32857091628887836 -0.40160566227617461 -0.060667902271860349 -0.05342027542207569 -0.066240168323256729 -0.30442948447498674 -0.15597742871377857 -0.31192134872309996 0.23732778044528149 0.19368335799733344 -0.12076884509123419 0.23258429470979225 0.0055484029421806365 0.13928326115837228 -0.11525010176289496;-0.20569687833861519 -0.18580866205454627 -0.12627436945847004 0.2329103503106387 -0.043187571057902475 0.14401190587464893 -0.22188749232104987 -0.39505545163388078 -0.073442308294531383 -0.12510572879086473 0.12966329398944573 0.064856136881983564 -0.0099696591696945766 0.27175597730758649 -0.025410747113947547 0.22736920224590265 0.22988992396508751 0.015316722884213018 -0.17840958588727229 -0.19120699577930006 -0.40906115445429347 0.082537622105503847 -0.53506763107377397 -0.22291974881381152 0.1419584157285696 0.1522913366578619 -0.38098622962535589 0.11231028742567913 -0.38580368567879486 0.20868682188581486 -0.010727455782104793 0.1214529676459757 0.17346008989834341 -0.079280691052057983 0.30075099765245705 -0.12634679531574072 0.16163958368133802 0.18876216930332754 0.14580086535267084 -0.15836796291618174 0.54320371030929282 0.33082496464929623 -0.088618742013313878 -0.093996408596626779 -0.011746919535306403 -0.15118895568863078 -0.15102984246174211 0.17326225157278899 0.37179841523934509 0.19219359821424373 0.19854349330118365 0.3361933370655768 0.07760935438965362 0.20675202519023675 0.11786055746012822 -0.24471580353157302 0.22929871097879317 -0.30470981496671473 0.33675403203777898 0.052819932796737135;-0.085988369977970658 -0.26995757552240468 -0.021277954705224512 -0.13995914459393954 -0.13917338103651714 0.078807981638252242 0.11475940558653819 -0.22288857130664561 0.16931873800151748 -0.24111814170267601 -0.32351318894276654 0.037392687595205011 0.23308154209177409 0.36154943011307045 -0.14941614146970278 -0.09631023274978015 0.28059679408529592 -0.24501601627570024 0.0039969457106840524 0.14011945702746367 0.31154082720290061 0.23656680286938173 0.16206308820668441 0.14248938013366172 -0.22877619332611734 -0.020120699060716507 0.041916489785026545 -0.18685762259087077 -0.061797355299788796 -0.36346853561226766 0.018944326171199257 0.27219054785632318 0.27324428981755283 0.10858085150214183 -0.023194443492000172 0.16794495777483376 0.16416257370580334 -0.16706221437344215 -0.0014828045610463631 0.27025282792484262 -0.15761117175462622 0.027288579874428263 0.18581827128779721 -0.019435051446293032 0.1245254891710265 0.15339676856972295 0.29233707579028523 0.1473028876767036 -0.25965197415811636 0.1835639570149574 0.18718360458711436 0.28956826921417655 -0.18485974259410576 0.059171636535053238 -0.0052575644933328478 0.2995759654484082 0.30685939524397365 -0.01050079828782753 0.27228063059628543 0.18824488497252428;-0.073172990385762526 -0.28761476753475568 0.29522379941112437 -0.087088987274114793 0.2484092013060408 0.038180789166870989 -0.34324340982952595 -0.15727639056084405 0.16768600733410133 0.17087157908723544 -0.26474582558968884 0.27721616858843834 -0.086714105126663055 -0.23826440122187637 -0.14533671884841792 -0.38255903829213211 -0.023134424548610762 -0.25618198788931335 -0.35396702729987228 0.11241381822552612 0.66582680011264062 0.2726811344889159 0.10162820875416173 -0.43990248377546265 0.14713823611428339 -0.11621688724210268 0.15524158519244965 -0.087590814398072106 -0.018889514496719405 0.2187557915292121 -0.62449688268312009 -0.28729571300577522 0.054442196453710408 -0.00012712406617875101 0.22512030479735959 -0.036419075293479992 0.084571791182167316 -0.18630911789984406 -0.23890296222958643 -0.046385258362583302 -0.085528867629743599 0.1867895562224052 0.045685862992954233 0.32430148529282116 -0.36747641211341769 0.43377121704096211 0.095691130258353768 0.0042944940923882961 0.16529116553155607 0.098419797856446195 -0.082327565406067477 0.12706919342572182 0.11276996971823637 0.25877213597142368 -0.073441511322024977 -0.062491979817415701 0.03469854180413913 0.21780573540966341 -0.072487624974286222 -0.12568583832408536;-0.26917779328990538 -0.20770129503538418 -0.3071685603779018 -0.063151590905794808 -0.13899683391094744 0.18032159433896292 0.42770986919183379 -0.3199362521445766 -0.25250206333893466 0.23741330602759972 -0.092854914931560603 -0.31134785317543545 0.16812830087124639 0.23837685369879461 -0.60953717083715608 -0.33904429734744762 -0.27110874321594797 -0.0014717758458841126 0.22202518950910957 0.34657604106335677 0.18832294170183131 -0.36517924778508104 0.27932563131785892 0.35768060127653439 -0.3362035673419751 -0.064541949300954721 0.15586224898402559 -0.41858978288765941 0.071229184598338449 -0.021784597583433971 0.14343108341421662 0.16166866297826651 0.089369989442725409 -0.006759185155750861 0.031642426886005777 -0.22573184799931162 0.29072246284333841 0.088181617670358883 0.10640997963526064 0.050979795483694565 0.0046707122689233164 -0.026878120438467754 0.39610387555799875 -0.36960231947502931 -0.37036127170260963 0.025553283674780259 0.1677398751344012 -0.23494402121321717 0.1271009125946054 -0.030013207269374249 -0.18680513412486227 -0.092104348547622922 0.22372409943580018 0.16699159489088411 0.025020615156125494 0.18204682490594773 0.3736963178065365 0.29549743447221999 -0.040103627228890541 0.27741905624953922;0.032276894702535676 -0.18600788486257219 0.097124727264952304 0.064854984741833557 0.32463031804858444 -0.040185122166524534 0.093590435631811575 -0.16068578298923511 -0.24871172216927026 0.22783507668546024 -0.23427614907436317 -0.14650404180795756 0.32655761433777469 0.33811078188818017 0.00586934915966731 -0.24484268935216433 -0.26030747537888893 -0.057098364134603459 0.19810182991457145 -0.08980491404693107 -0.22245154034712608 0.027942489327375551 0.18482150491942825 -0.14921639943538301 -0.13012817855607911 -0.18570693446587902 -0.45677233520890914 -0.026973193774959513 -0.2840588660288042 0.3018145596214763 0.19821265319470674 0.032953720589086535 -0.46372217206620953 0.27224540001731329 -0.40841590025567759 -0.076721889160413725 -0.11867720798775454 0.070908963058683119 -0.37787966129649947 0.096308246988525775 -0.21369461325590014 -0.081235507072457483 -0.26087479597998786 0.1065611016141767 0.27218512813212342 -0.18711185758460153 0.045346971744560594 -0.28510039691592481 0.36910422992326275 0.2320077061380722 0.30054861490889606 0.1037283535721584 0.0074350273778151892 -0.16487441088809743 -0.29957563159447587 0.074585188077602366 -0.10700281489105329 -0.17504113666991031 -0.014609843592003013 -0.017230666141342662;0.10778131928629553 0.10457590743208892 0.30637171302435617 -0.23049197255125251 0.04802441377146556 -0.22677064472168754 0.34258583740215431 0.10750230290177754 -0.039400563201450779 -0.046766841462311998 0.26410484496675984 -0.1644583242013378 -0.1395996559697017 0.21102756456439989 -0.30593914587519699 -0.19545593868283567 0.17948548348870341 0.22098975277384397 -0.1763477438416009 0.076807418831855157 0.095150541474018871 -0.12763439516374972 -0.1775665378234127 -0.10839355656419353 0.24294353895864043 -0.16467541134341754 -0.14342566270355545 0.20017118558577629 -0.22013338430043736 0.16155522046307805 0.092893037746637458 -0.28075059201501446 0.25380442861360286 -0.10470387117704909 0.052644718059101599 0.29875868270128308 -0.12651492935436404 -0.087880748398856984 0.008753146460047349 0.079655873679573941 -0.20404697761690394 -0.27060571082136675 -0.25262189315037037 0.17953537737610858 -0.067916650411844789 -0.066570100287414391 -0.015599572695275815 0.21963825374718132 0.13402158853832041 0.30158347818567116 -0.077273374343432955 -0.18265266367427158 0.29784310190241742 -0.23741282267720212 0.3225634541736393 -0.11335412933613333 0.26144826789655962 -0.033926700067021281 -0.29846876119437127 0.24179887021001323;-0.0079455766659382449 -0.18369259259059015 -0.057904450476936931 -0.19388651931770726 -0.28025827528141178 -0.14765990714590455 0.041441349949038767 0.26929754727220945 0.10704695385523992 -0.24953298709922597 -0.25704317550860034 -0.010488114481379721 -0.097518601476447378 0.066322346763902335 0.14370884056469291 -0.20695883941478677 0.026963608094683702 0.1716712336436185 0.25661198897481002 0.30449242550990019 0.17741976744104762 -0.20408226857242331 0.19265263295353252 0.21089726307539416 0.23318924885372763 -0.09870186039082407 -0.29277040355164496 -0.14722017284932359 0.30414143752231537 -0.071020132559114393 -0.17857920613496092 -0.21595101696086455 0.22172760694147026 0.35325209264837959 0.16317294266471544 -0.30343173389153694 -0.16291759793727775 0.29834868594695801 -0.23704323290539056 0.019884381937472533 -0.19318661567351572 -0.18011910456395636 -0.087299961715783442 -0.16569206437743728 -0.057760711557112966 -0.28509872659575752 -0.3593905017177445 -0.12236664516952406 -0.16860395624726346 0.22194533087704552 0.13184220477132094 -0.20457227507960096 0.0418554971643222 0.19704441581945289 0.1891678142127938 0.026004947962321438 -0.070667102007680657 0.23871529105648251 0.26278721857766701 0.00054305921772194489;0.21756588563388399 -0.31484219502968075 0.070280995866905588 -0.3158030851380948 0.13387701629231635 -0.2585159806264743 -0.18591379273447994 -0.61809619425356976 -0.15501870674181384 0.31166241534028238 0.44692637218509701 -0.15823156327901397 0.033976622799439408 -0.16350743539433688 -0.22617046526363932 0.26598060073716573 -0.30755021668437604 0.3152097103089947 -0.065524028790071839 0.14500612595298595 0.088909303239431775 -0.24470776351043011 0.16993118272027341 0.32529235116686239 -0.11245836377049911 -0.042363373531995256 0.022304829440911653 0.030242882517720365 -0.1607392115024277 0.029717389201711634 -0.56397763357433539 0.1761834406559756 -0.11438375834990179 0.11029238037833597 0.38233121137755999 -0.0024076146162626336 -0.15647420672781617 -0.098506052977085798 -0.080254989698837834 0.38072755664190183 -0.28352153980132083 0.092209854403474956 -0.2942806381399839 -0.12467694173628033 -0.34464874072848856 -0.4374426045919011 0.060901011790928147 0.23473487849303371 0.13411869109305574 -0.10859150499313298 -0.37470223620735688 0.16591757437351171 0.35477961214568504 -0.0091220875127677598 0.061346899810257483 -0.33257773132754764 0.38769925852849524 -0.048956516774464338 -0.3766622729626134 0.042129713396761921;0.29949291237379877 0.059522969390307892 -0.033884789087807697 0.23007091292797852 -0.307985302781976 0.182198687643394 0.12572346070185186 -0.37134054642187142 -0.20785350724513016 -0.15765656796628263 -0.20095410102762776 0.18155579001461353 -0.32856920985898613 0.014660369534855743 -0.093869152156105695 -0.040383281494898976 0.030951408943684616 0.08588561671553821 -0.028320903514474756 0.32171603932837445 -0.88617546336604258 0.04303329536532579 -0.042035245249969683 -0.13344755174624048 0.14746647463446189 0.10059745152802885 0.37656668825374406 -0.10348226854146553 -0.21755165091049089 0.031065234400659617 -0.48696641693476711 -0.24411400056410043 0.057353540839609252 -0.033701892300037811 -0.16962936919975075 0.38395785656632264 0.052189058318832762 -0.38965573262834552 -0.37789011540834916 0.39496966123927518 -0.24273817296599309 -0.08456418316419935 0.24195183276478788 -0.3156648407064932 0.048272049344495693 0.3184460141446378 -0.14765577579102254 0.33922419981565055 -0.08307748379642535 0.071145324481107719 0.27448388855599182 0.00041062628472078805 0.27240972766407001 -0.31002410472679537 -0.081028758210685836 0.19315806815176997 -0.45334235094947095 -0.048437404342149055 -0.072457990848206838 0.2592515801237823;0.059545318917613096 0.074728025860127667 -0.066185035169809073 -0.25433790771825099 0.016685425984173746 -0.11832767285241572 -0.066714158126261219 -0.29982122553385587 0.10054790243983834 0.26250273743103736 0.1880790924704494 0.3075520787178741 -0.035878680719413789 0.018052281568572595 -0.29203220910856875 0.35428302828349839 0.20455323218843968 -0.081100970580092052 0.29444521661283235 0.16566139502591945 -0.15838400261832133 0.085028204146514144 -0.24445414461008907 0.28930153577091255 -0.071099486571430504 0.014171036798278162 -0.29060381173512662 0.34653021630625119 0.067520727265917041 0.14387028741247376 -0.31092382169837185 -0.079980507654353314 -0.16670221017467773 -0.29520526881486586 -0.13003056472802194 -0.33217377358477479 -0.037981539819417008 -0.35051184498723681 -0.063267196233047732 -0.0017725065470999791 -0.31467337951275376 0.036775084138903326 -0.26184149572427112 -0.35303434649765808 0.07679475627683359 0.025136021998086094 -0.095172561077956019 -0.3553234250458614 0.29120673110854461 0.1144071446578336 -0.31663032607296621 0.072414824843275119 -0.17937472361535045 -0.013059183284170904 0.033506385606360448 -0.10548654909001678 0.053344345590597551 0.30038854905502921 0.0047305021779607478 -0.035902317225409264;-0.021259721865031729 -0.30218674158994868 -0.072713211328525984 0.23549620897215809 0.16103398963031179 -0.058823380385556019 -0.020191736898467368 -0.031722045890009341 -0.1181433868196738 -0.13612243652250064 0.039349478159440017 0.23850744120860704 -0.24239817775902445 0.25137781183184305 0.14890426822001468 0.029853849712070321 -0.39441977762630603 -0.32362436601896377 -0.3112909577789269 -0.03572066705849692 -0.11081676252089792 0.19517653296790424 0.32298680954849673 -0.11177892473295001 0.1843971425196459 -0.30475235085325769 -0.0182055302805854 0.13445293302873987 0.089194081537987926 0.21426986639609213 0.08804366139346613 -0.2644111167775926 0.46031374231695005 -0.34466235104657555 -0.091998018468257781 -0.20398841891718955 0.057584988591133562 0.42075047866159282 -0.12925963143559821 -0.08039746606466075 -0.32163000980466638 0.12070593212778637 -0.32622803089649099 -0.024128615370074099 -0.26301557195923986 0.22220627358224315 -0.26834373109044346 -0.26002515754903527 0.012682109029158556 0.14666682525568778 0.046002710556431278 -0.020470259432188744 0.13507742148922469 -0.020563776445013601 0.21375156446507598 -0.21052793993675736 -0.096160236493942619 -0.0071068707026528885 -0.15837463205780125 0.44820331881212588;0.37883051819766073 -0.29958541655227683 -0.044072668125172729 -0.31742275900302108 0.38574593525658207 -0.27841683980810655 -0.079378378744726197 -0.14262926929496347 -0.10885380510200043 0.038707136154939772 0.04670951456939304 0.48760665771589423 -0.12932142758639664 0.10385762003904103 0.027520192252076279 0.24175538577728731 -0.40799056628302349 0.34339875275666693 0.16366267954242261 -0.15815834771955725 0.47617840285535107 0.058529789524605233 -0.078557539695895282 -0.490360050232241 -0.26233405243591884 0.014999780213819024 0.20324105972570605 0.30787870559792679 0.090925046297833684 0.56418647971955704 0.27372300049975651 -0.052515433253491305 -0.46372341919685101 -0.17069026128117265 0.10293117471882071 0.021873749017949671 -0.10565311804877922 -0.077743146295641316 0.45394780002800245 -0.054114872205312567 0.0088307261537024367 0.053276709762641199 -0.19085807729211757 -0.75431995978435795 -0.051237669657281881 0.12098993550214193 -0.025911705754510152 -0.0957221307575567 -0.25966283114192612 -0.062352856965648268 -0.22088508714528157 -0.11007575683759944 -0.14988479992009576 -0.1013356082687263 0.11214180240056595 0.3228293309914736 0.10382274002651236 -0.30161275601308968 -0.20753734598330045 0.51820805709501971;-0.095608584660233698 0.04288746022152716 -0.039507539260304002 0.36149161058944856 0.10096256448863043 0.37243257943917446 0.075095727389531589 0.29550925518828292 0.14645833892250265 -0.030732818067258933 0.44383578617021802 -0.070602144225818619 0.1423686655213974 -0.043886212399427679 0.026673488058726512 -0.041882615196551655 -0.18372505478024859 -0.22534026568500976 0.065873411963009595 -0.044028777560443585 0.36167520514771789 0.029018144603238476 0.37951224156717384 -0.084133690954341062 -0.21661727667425928 0.063735365137419162 0.072539503322419388 -0.32182400612851897 0.26099091405489527 0.19066081787023056 -0.28367677172375005 -0.10066630741932921 0.28666411498199434 -0.3394208684274076 -0.74620543264278605 -0.16084609300615607 0.22567786906414572 0.39447582929734948 0.49743281097778286 0.23074134629523974 -0.06310906023560775 0.19560949897735905 0.098542448405248895 -0.41623913603082102 0.017316925117408455 0.18598336754806483 0.29175896437120302 0.31504394631538607 -0.30045494193669908 0.032790700695484669 -0.29528151696689642 -0.47452354246648698 0.20509492653579023 -0.12216049591010822 0.22613867956514466 -0.039963770177856961 -0.33760177029381705 0.060147104079181071 -0.24048097524662712 -0.26750652358346866;0.17782107706384165 -0.36018736070940516 -0.32076247120840545 -0.16120122070814813 -0.09272892779041858 -0.1047255503766522 -0.30047204142866751 0.049009767001373702 0.19734700795670818 -0.14673580181083382 -0.10248378802368882 -0.098873519172395993 -0.076253420782860418 0.13127552528252465 -0.26245110423051715 -0.1508099981708573 0.097343929721179917 0.4253652683863256 0.16706734269745221 0.1790680428357192 -0.73460757157935397 -0.37282847185990559 -0.31368139889476543 0.15365152245615035 -0.30314205642582237 0.2177657385508355 0.35189140712762218 0.10912462298113279 -0.11229165762672375 0.16525280706322326 -0.076058636458153472 -0.34994681089355911 0.01695125645814085 -0.19521076185164563 -0.27724786981711225 0.53562123246552085 0.19613403014078334 -0.24426080283803273 -0.16732707358655172 0.00061207625151479296 0.041662417012750183 0.1711394217668539 0.2679583151144127 -0.17202486188632365 -0.194872068063738 -0.050528751778425994 -0.27001854909717909 -0.23357304680703322 -0.16745018269451584 -0.069978752725882082 0.31795726627285203 -0.13763141134768409 -0.28294710169612086 -0.14542426830377791 -0.59679106688007344 0.31608180040369271 0.25964188190523424 0.25319532971411424 0.22636095713883428 -0.077312660878157274;0.024172019068124287 0.17959743460295952 0.097114697262033992 -0.10736176750234104 0.25716676196320587 0.17198212401540494 0.19132025595178501 0.31263320170295766 -0.20705688057195965 0.035445300372357914 0.12138302140238715 0.2730505231654145 0.16729804808472462 -0.29517255287999444 0.21502715808447306 -0.37111588896311309 0.36862544536921937 0.20237564792058244 0.056074531845692624 -0.097511909591543308 0.11038613441692766 -0.17095859226434729 -0.09680592357174711 -0.037180110610083167 0.13820788980269241 -0.093471624699448516 0.06833963432986076 -0.38848045373022577 -0.24226214692769449 0.20877214724293103 -0.035189649082141096 0.10484347564419547 0.048809636460725503 -0.31657655558476977 -0.17167517759911882 -0.062548794922365758 0.1988431076164002 0.18712614432738142 0.26353353147502484 -0.0091680227192060659 0.23013514608018037 0.047828245311370296 -0.09882863020983601 -0.32037933139083963 -0.2025294556169035 -0.3927013320617751 -0.31690621081681997 -0.22319411986810636 0.0089013795148212491 -0.072710655829294216 0.14266617524950181 0.40362148643148643 -0.11873062542338489 0.26769248250148336 -0.077182161988848433 0.27451861459747279 -0.36735893775738793 0.17975504853690372 -0.34062752257889101 -0.14059479346309808;-0.36877692555095937 0.1880413593688825 0.18232647221353643 -0.17578706016437942 -0.34905121224188318 -0.40198501307231205 -0.030365493526064186 -0.54515197103761603 0.17366312346313387 0.16366105254370258 -0.25372529797338184 0.054665773494107457 -0.43809745770005581 0.13959866143810254 -0.03592935182689086 -0.30993528748586036 -0.074533956128670725 -0.040253374800533349 -0.12998929173005785 -0.093266700991327667 -0.25148399027414936 -0.023405015142123523 0.13145665275210297 0.19785636886406724 0.011290328275232219 -0.27934971952963755 -0.11672810727826785 0.03501534237607401 -0.51599199355892855 -0.53868963750905208 -0.016052264235165828 -0.13316114004935328 0.15159991124273958 0.042464542853082154 -0.25779933565719271 0.22313984480169963 -0.023602214215471658 -0.26198972994086384 0.14686120022347177 0.19280219168514523 0.027837571315023183 -0.28470941608253603 0.19673781287289666 0.11109550598827146 0.26007343728112525 0.21108599147743659 0.16832246766821243 -0.16615095291897641 -0.38315213500798306 0.16709531887726597 -0.0056835454506179179 -0.48305961559150723 -0.084621273778250961 -0.085924806239904533 -0.11037968595159864 -0.05882454895375866 0.095614675640020949 0.1540384693790656 -0.19686640265403163 -0.315312645369769;-0.024220726728016711 -0.34535817853286904 0.13030623859188389 -0.12349262362084787 0.089083819928425539 0.25697047270594847 -0.12142530808172133 -0.15678893984282091 -0.26801899896423081 -0.095002327464180317 0.11893876753398414 0.06141702937797662 0.16047400163231265 -0.073036355959351873 -0.32305111199159248 0.2626166995394989 -0.12279402769183509 -0.18684268066138934 0.15133399798013003 0.13177987847909689 -0.15212352588474276 0.06335709417614431 0.16139777468316494 0.22515486220788528 0.24140690817861518 -0.0036618739170982935 0.1905288746416107 -0.35437653460134627 0.23514670281169728 0.31706951802531275 0.12868261048623297 0.15355916230789995 -0.05936987575830676 -0.10276663989168953 -0.18804195807758906 0.079576398547085286 0.024517875064173904 0.018875376009176846 -0.177855422434432 0.17123771207897631 -0.25173359376824311 0.13239685640764146 -0.25599506070931805 0.036019702816232478 0.19411852944535907 0.133280548511331 -0.19803508308820869 0.15186375328914986 -0.31150589823956798 0.13343987255415141 0.28110946486263294 -0.13132069919228243 0.29712724837481558 -0.052514289448612902 -0.044636206258387996 0.10193521541808055 0.23867954434746921 0.21637286536273373 -0.3865941002963324 -0.27788178854614654;0.3041735497779241 0.095197624057028307 -0.22946217691323353 0.097080364779067632 -0.030543024242427032 -0.015449597105621278 0.073898639098889315 -0.044150166737456288 0.060119767941357156 -0.077765372481314168 -0.10852384779908102 0.28186771612283401 0.51043756127727991 0.012933462707488744 -0.15087803793887261 -0.15116492894467118 0.099691714157835482 -0.042778341135482942 0.313252133937238 0.096460260112726737 0.17896512492103156 0.13700870096461473 -0.28215775391699699 0.36894721603713199 0.27432520043031611 0.29180941362848906 -0.2957419863879624 -0.19609137940210378 0.17610548964591857 0.27745547870643961 -0.20953446280447713 -0.018608878634448885 0.47924515874393175 -0.30149407325781413 0.11384000845277935 0.097603186055545937 -0.12304902856990403 0.27036080987668804 0.19025661859269943 0.10707996767017974 -0.078639105044033999 -0.21685659099313584 0.22754228848250474 0.22190205456162831 0.12379256722633569 0.26733127676259133 0.28955465132879932 0.21550968523091124 -0.30656323801743968 -0.22795537793880524 0.19142816445769606 -0.2711535010449504 0.3288696048467199 -0.05012940214754457 -0.0053240760827500417 -0.21956557575635693 -0.13636325788582615 0.0048401606894646308 0.073289555628779521 0.067722994750515797;0.13769960966474282 0.21011047515230877 0.017786922357512662 0.13649287455055525 0.14859642317608243 -0.26612839614537653 -0.25811934071827997 0.084264358626696373 -0.083247728577567348 0.27732102608653891 0.13673672770771481 0.014445980503304388 -0.066742254143776769 0.043562979580007752 0.27134631159527939 -0.28643149949858443 -0.35341907329216732 -0.17300502212043312 -0.33752370047533858 -0.0050736966122796809 0.24969532819780882 0.075176100169572949 -0.14182054057997648 0.37711670658188168 -0.21948208980981623 -0.34835689964531347 -0.021483035593720289 -0.066733054632059377 -0.085439719816250162 -0.094521541187256447 -0.35273447536114089 0.0030224432062394644 -0.17572803980182541 -0.058809650749577953 -0.17886476231864074 -0.11394368689119141 0.0088429602279858216 0.087761293825221895 -0.18437270338787637 0.34097812985114034 -0.077266319657476212 0.27461327525284451 0.1327859984063085 0.21670665196922903 -0.0059382584970163891 0.24462335819843453 -0.23327988869817345 0.3499517126563419 0.0073079400654329444 0.16168566942444912 0.19685349508107214 0.14618138106542464 0.13470267068416972 0.11146738358497661 0.11754615886874061 -0.31203433928529672 0.37586295615347898 -0.14324276088341656 -0.32006458102757829 -0.14846188018904022;0.032668715529236447 0.11061861493129876 -0.21396135302841918 0.25254908331165715 0.062782269262260215 0.0074442823141998632 -0.046632696731626087 0.21645963417866648 -0.26177149533338478 -0.28721615879801926 -0.26213265308604872 0.26067538284314101 -0.17161343861669262 -0.23633146532548632 0.14230034032126629 0.18723329719458687 0.035259905799568822 -0.11189583641868706 0.25926516277611261 0.18245670976876996 -0.090068125598980364 0.30014100110883907 0.26130744283238205 -0.28211682440871344 -0.0014780818671671506 0.049903846528432418 -0.34662038346275303 0.34844769843011741 -0.32039360151723123 0.2860044014415028 0.26867070036310053 -0.065381449572267922 -0.13636206537929291 0.22733795704939541 0.10941161293681073 -0.21335172048887549 -0.25829372538879225 0.17093920233222118 0.10938721869001622 0.3446617655720346 0.15609946170369349 -0.15366244081428387 -0.11275223663644265 0.068391546253681587 -0.21384524104861 -0.23653035432012903 0.22731063322757408 0.16450790888794814 0.32876857026220657 -0.027939796351221752 -0.16985051394822442 -0.12060279173705368 -0.072799791943124442 -0.04991748638369408 -0.31738337964885721 0.0010031596569139104 -0.18599079973818602 -0.31238423042577301 -0.22385279200997149 0.14269302182541094;0.43816483347603385 -0.098917820130259348 -0.047719012924119994 0.031234064875012735 -0.3096857289627778 -0.094656504575648184 0.037516564059935545 0.21081625689447742 0.21619946644862892 -0.44539313201176001 0.018038542846922537 0.83326748907600712 0.39183750205410484 -0.21251138483424023 0.14340876382483397 -0.065229602850691334 -0.18850739096974486 0.3439393316830387 0.12015517901078851 -0.087951024737600608 0.59042273042478854 -0.14824668912575187 -0.27584924463462762 0.55695020088089886 0.27454805397690907 0.33316964511220176 -0.038288610926935043 0.60739750015730121 -0.1280797994155681 0.31843659298573862 -0.18150441356191865 -0.0088069666464708277 0.43344108806591564 -0.14588289325640053 0.50347321315984661 -0.08915222449083883 0.16631157216319584 0.043821671606613849 0.23237586518535613 0.14895873409112567 0.032988123535989122 0.21276181494711804 -0.21472215053164739 0.084360753139893024 -0.046318673297880017 -0.23548742997050193 -0.14105841525068941 0.11184987935315104 0.08856518075327495 -0.28036431735721934 0.015133223921916482 -0.11837761625947804 0.20601737283742819 0.041987262684238538 -0.041409219578538659 0.41071133976009622 0.31978109793561599 -0.19525702415907084 -0.031520476047834541 -0.049143765333469022;-0.084915571647959223 -0.39134201951415787 0.41219371671620764 -0.053763319003340151 -0.2839035701179965 -0.31027073796979571 -0.094551996428810833 -0.11492034549099081 -0.51890052883018256 0.18620320429323575 -0.17115389625324623 0.15194388757403857 -0.24355651198824532 -0.23463935974431319 -0.26218619631753132 -0.2653939444085559 -0.4710838144381152 -0.075290343686494995 -0.29526025350236945 -0.073500751098881795 0.2162601378841888 -0.028569121741911299 -0.35550088992884027 0.49975332371443298 -0.089958221170210351 0.30439033573059399 0.22420321403131385 0.11537635545614353 0.18489411943947712 -0.27596116277015043 0.17438072819454925 -0.11123791889533934 0.079914302770572598 -0.1415493763395814 -0.31058249415414019 -0.19003275220918531 -0.077519941573920836 0.49882584239002825 -0.28238749796301349 -0.089138739810338055 -0.095205576176994502 0.12888778382619992 -0.035864592965705128 -0.32738258749545185 0.038752947815536211 0.14368849769969647 -0.19960888448693509 -0.38827178746614538 -0.25316599030504927 0.27395137998928287 0.16301169271101851 0.34277344877063248 0.14658662506189751 0.18941264071133329 0.050052034665240691 -0.22813771736901292 0.025497600663960292 0.08353362024452532 0.0071645224444402298 -0.0048566014010414729;-0.2007217748597282 -0.42875541305926512 -0.30699736942555594 0.16452449551093409 0.031557794348588325 0.28555165684002426 0.0098399430620944358 -0.0026377059740097311 0.24932301274354501 0.36389335841049447 0.27019434768534834 -0.1345838665191583 -0.05165320180242737 -0.28972006276623097 0.12598946210785936 0.29908167889415244 -0.070836329342949464 -0.040159307438464208 0.060899392736749602 0.20342372676069165 -0.29781703128197484 0.083441863154065155 -0.13181832741016802 0.33331442098345088 0.15106500999824063 0.29078446035533612 -0.22395826275938338 0.11527507014024423 0.36188784979227578 -0.015274951660154256 -0.14703922915000511 -0.025952203826167825 -0.2128537308650047 0.15199890807123143 -0.041866301331521305 -0.16196335063668382 -0.20508804576037731 -0.18790285433446377 0.31130072007735243 0.38190304676882358 0.08439055102630523 0.2219272488348992 0.13695562516200621 -0.37742902013913393 -0.042553782892687422 0.12800130283146416 0.10242012029326185 -0.28013900984827328 -0.31911570730570249 0.2726992034048753 -0.28226596948791066 0.28975975441910551 -0.17943292830178811 -0.16234704805327216 0.15724501586849038 0.038950116477064721 0.29972027934544282 0.18237279062759865 -0.088997956494052385 -0.0066901957107602331;0.30087228304325409 -0.060181697582944289 0.094137167129060881 -0.17515714383603811 0.3812529921526373 -0.32511838425758538 -0.13170093013157028 -0.26121771539721728 -0.17718626056732581 0.23202451892916431 -0.15819684420044347 0.17729688834555651 0.15006356357426295 0.43603657516880034 0.19734099351130258 0.012868262333236511 -0.33534605162153114 0.29895169780011777 -0.2045854058673916 0.47164645049870185 0.11386377252041301 -0.25726841524225447 -0.37780288666225487 -0.2319582909138613 -0.084848355031052036 -0.19090172293712029 -0.10758477165887985 0.048138849585837508 0.097979509016311056 -0.34735097458657505 -0.094726821684727014 -0.16945817782521438 0.13295224440255446 -0.12313038587528922 0.032308644735593028 0.12486930114037309 -0.09564694857827552 -0.27537552939211457 0.3075327921493714 0.32410730850502673 0.35111511079959401 0.20635984071907723 -0.12147229535456411 -0.27190564039677162 -0.10258135449770026 -0.1461259389501616 -0.52833109811248402 -0.1376583756985757 0.076909485980760722 -0.11264941670877818 -0.37716222726383958 -0.23685846088105411 0.094806773694328356 -0.3047864954045984 -0.1709925372269534 -0.082009067801366367 0.19119804590175063 0.003358919402390529 0.085017613743907899 -0.090465152767097157;-0.28661434980035211 0.13932658989609958 -0.059366585805149849 -0.29550341772491301 0.012623800468901493 0.28160577350288363 0.1804641690348894 -0.12833809510670297 -0.32625564975298083 -0.31141776322254261 0.20131197290284078 -0.012931167515926833 -0.071452279371094121 -0.087975687154068449 0.033257263888471285 -0.20293121723527288 -0.054890756235980172 0.0088914124588861717 -0.13538545710036876 0.050212233868397758 0.20550147648712747 0.1446621854988728 -0.10110869875797628 0.28604749466744633 0.15191098814445209 0.22292148888366656 -0.27371752982289377 -0.33882625411182404 0.22561727004394375 -0.23045358358850498 -0.027816785134316725 -0.30275031789678192 0.13612139449993776 -0.13300750873243733 -0.050255479056478966 -0.23331603147541344 0.12111408764029331 0.0016102189440328246 -0.020707331249079298 0.061857763860269525 0.1663324446048895 0.16386971686407859 0.11860500186201416 -0.065018176941576286 0.13789416196555701 -0.24888412135814283 -0.27989754284228396 -0.2584984100542102 0.2597834473008061 -0.23922714673497525 -0.11992050750532127 -0.32604834016603373 0.26843721183366442 0.19689443624371447 -0.20297171219767332 -0.20987891993950433 -0.161094512803097 0.20555190914111413 -0.15785315427760377 -0.2025683466118561;0.1125086194561277 -0.10249396767968726 0.014736783119460346 -0.027055096099167838 -0.14248837759924304 -0.2890095129479186 0.091029783026842281 -0.11095284568535471 -0.024054955034464795 -0.035002717962163886 0.29163434972493935 0.041828582844177745 0.24966753273389647 -0.22499347926828331 0.045411429946110859 0.078432534678244112 0.2748058522377369 -0.25652965357116997 -0.33631105384694848 -0.14588658419727027 0.033752721744546528 0.077672731853622876 -0.17254094192093741 -0.29834026192414137 0.24746089414683362 0.13640424094693401 -0.23900314197993264 -0.15733223297863613 -0.33265990966112846 0.23313461596263732 0.043145778044686042 0.23455945152635727 -0.17176135747772373 -0.18426534850939053 -0.1122836372157721 -0.15536064445363645 -0.12486341023372513 0.29498121597747035 -0.2322122912140473 0.27516711738002214 0.32814077730051155 -0.11799600846840801 -0.066332521770205169 0.1071022110007481 -0.27273095920640827 0.051284971313503652 0.068522881468368102 -0.16754361463233594 -0.11967565049429255 0.17374087359301119 0.33362354478418299 0.10247240736681953 0.064391392628475375 -0.11231024854579365 -0.30759114548897315 0.16406970427950687 0.11136807833287106 0.20180153588346444 -0.34462452247654968 -0.1756354075406388;0.11891466088081645 -0.081572773949238148 -0.16401202490674646 -0.32143816128091546 -0.12232388464670808 -0.068069506478171754 0.039727982474026452 -0.128871808349619 -0.12206782945556363 -0.20690122910657097 0.46415584866400611 0.11980211953653853 0.072446625781284052 -0.29502200782777255 0.26970921975549506 -0.10996430090228601 0.095158916338597868 -0.21437193274178035 0.067370933451589871 -0.15656990618182451 0.12401746997485594 -0.24494770703153759 -0.20175193949787545 0.090108780509561448 -0.039678825024590178 0.2609488142053355 -0.020446762711605903 -0.058001525855453692 -0.20455005452600403 0.27180774803876656 0.2385228191472212 0.12716942732752207 0.095791822853323022 -0.0694042529400518 -0.22396051747351922 -0.2504709320553728 0.26072622024221748 -0.3319408962197179 -0.16557933553662096 -0.027911368125503051 0.0034364287214623322 0.042288567277977043 0.34819357678839208 0.010753545721132114 0.2043159078920247 0.22417957212336853 -0.19198250403132144 0.04901787289771696 0.27823048999568756 -0.21113475287866321 -0.23680007190595054 -0.19043003960714561 -0.24865590618014685 0.26486110543560243 0.0044255283204842535 0.24520588590785775 -0.075610958249773694 -0.18122711348811824 -0.34313593534433273 -0.30293945444052878;0.09169194731579651 0.44717766181866969 0.38773225766664654 0.39674570912427243 0.58564358906757918 -0.482462983953373 0.23464406041775701 0.3318423954672059 0.048103311630068341 0.078482249342039803 -0.27644312628648249 0.031994022708002771 0.18584568135511667 0.09441239797140627 0.084428027138014214 -0.3934817506026666 0.40928486567109035 0.24525030578816173 0.203818249615658 0.47155899804024703 0.41861227844756865 -0.22898825625203861 -0.3498995757033399 0.11852829578296643 0.19405020638716716 -0.26922275896101339 0.34483757811194027 0.36106428765183496 0.38452761940718327 0.39530774402457242 -0.4406650280956026 -0.22111297780854544 -0.56741619559973422 0.42546819052961016 0.54712526232281944 -0.030127651271876364 0.050110313166886841 -0.10239753214708025 0.10846848942423756 -0.019940162964915159 -0.075642133476561069 0.091412978070452233 0.38143923770942423 -0.20981071833709222 -0.13876758541056511 0.17943777241311484 0.29511370697877742 0.42011752653791784 -0.13594484470894563 -0.67561131833059684 0.35030564974595119 0.0090547163820463676 -0.14859133595891882 0.09888289623333496 0.069863856243022826 0.49270735712782482 0.091442812944369151 0.18208152547079967 0.14550604622034213 0.12518638365419754;0.023305870306181184 -0.27678523478794065 -0.25325581778034933 0.24563472598462369 0.030160237776229802 0.13412562823974247 -0.052623092846871167 0.17968459120084976 -0.18547576191174789 0.27429347187695019 -0.13192366909327227 -0.19284999844175538 0.30060559699174816 0.088221939561874227 -0.24820024072102834 0.20551664452701215 -0.21792878098320193 0.060138677915074094 0.22370710371391594 -0.16453950825987534 0.22434311982919267 -0.16693952548774393 -0.30410730262059638 0.27406261264872683 -0.15299958281465537 0.25886988201277955 -0.010138568557494494 -0.10102343133153575 -0.2888872791480564 0.32054406800843571 -0.065887611409176455 0.31086492922220621 0.1478202661029874 0.2801908618558997 -0.048034263825432154 0.087936343520975513 0.062433574040852757 0.24231116005015713 -0.098103376028111977 -0.14592634863708867 -0.1984945631974831 -0.16014647523571629 -0.27340208600837845 -0.12544743046363027 0.029397831799226622 -0.16753668633345759 -0.0020410632257042444 0.035124464669983535 0.31710302478022762 -0.2479865160351547 -0.18975659303259923 0.067196610495927137 0.044092864003706898 -0.025369762591393671 -0.27661494066575582 0.23722595633744623 -0.26628789296653516 0.14378721645865128 -0.17446008207466443 -0.081392844380283366;0.12260180240204886 0.2797954755215466 0.10413418517743439 0.25855951145560496 0.25873959223310738 -0.2463541306153352 0.28433963081004937 -0.20791650875674558 0.17557375310087153 -0.27257480184277877 0.13177456595198811 0.090589149581934009 -0.20881571670256766 -0.26012026657604093 -0.07201314310555347 -0.093312116420060043 -0.0069215738455437889 -0.3005734933372966 -0.30244644332834703 -0.23575960765348955 -0.098544911797533982 -0.23026184175917364 0.23505514652874723 -0.20203680501628979 0.22559030685654963 0.16569025254249006 -0.010535778020134593 -0.1815332315686862 0.20854738800346467 -0.1993416371267559 -0.1088679051654344 0.17244392272889802 0.17906406707523018 -0.0058112671837663044 0.28172239615023753 -0.26390652241086399 -0.28496380231521073 0.13820309090490079 0.24939558924814303 -0.037608269296134665 -0.0063050654060518973 0.2220759120858099 0.24766435319262534 -0.057528530566326314 0.15578346627149456 0.070441104819355616 -0.2523554665571619 -0.067344228351167143 -0.28135312676171048 0.17133510109828837 0.14452693353686785 0.1192881085668521 -0.18380277574621862 -0.089809913232659369 0.19507575663209564 -0.046501058784268107 0.2616898022222009 -0.016416826381731784 -0.24842629230816723 0.15113156074613834;0.044658441242750327 -0.00037906966554639501 0.049522393455002096 0.13399784580667568 0.56057362547603218 0.089704305746711205 0.13824001867917932 -0.093711769299080899 0.14873117963305521 0.24747477032471102 0.093397290070504263 0.12284226245354334 0.39773363733440054 0.20133354436100898 -0.018650990900659074 0.1339275913408631 0.14170891735197105 -0.18850002797920765 0.30767496957779311 0.085341086191010107 0.16666127394870581 0.24457830478206852 0.22543734176102265 0.25879883856161162 0.21544586659996759 0.0099468615417734087 -0.0066469799299787016 0.053194072991144835 -0.29042063454782402 0.039813272112172463 0.027990966937934594 0.10791735946844333 0.46854840986727175 0.21941618857202577 0.23674289740316273 -0.09000366022694993 0.11906437673216833 -0.017342968198744202 0.16070810902549196 -0.49313184013600964 0.066457984927907221 0.31861307099046338 0.31026238278614349 -0.36332611936588977 -0.26736591479412908 0.073843328204040271 -0.25822294551441932 -0.076961429206697449 -0.12673462113595715 -0.21520882941979153 0.27780212910467272 -0.32329949964403076 0.031732424742858006 -0.30477821156258561 0.12483356144783984 -0.32455535626547111 0.21649242976263267 0.12577319166928908 -0.13467876337115739 0.31231309355570286;-0.18150606770155767 0.35271535661581749 -0.20849613889510157 -0.053471698501170048 0.018973335123307199 0.16893978946995983 0.12303766338463805 -0.38000406745488113 0.28427523038421915 0.48029566695789466 0.44479904470992115 0.038410249687043554 -0.0015219370134538848 0.25036366523450077 0.22676822292481 0.053265254377846225 0.072254914860634123 0.18139077466262654 -0.2440221655933997 -0.36911117832097839 0.1883070629372196 -0.50629917290161497 0.028235918224671069 -0.1687857138742041 0.44812937029511596 -0.1608318130480462 0.18837936431288271 -0.17628512726391199 -0.10939527130744331 0.045439884348679682 0.034499508584452172 -0.04778963623168888 0.15668003105369871 -0.21221081906855047 0.20856313216224673 -0.12792125310919411 0.038640014911653954 0.083735635871709568 -0.44244436799004627 -0.207029261072046 0.09660690997995576 0.25419443797459285 -0.068480208255963765 0.034181025217231487 0.071141148436178803 -0.031742854498591877 -0.041064310611643638 -0.5607592715526527 -0.2461883877533555 -0.13449235071748375 -0.067338086034862493 -0.19876462729426791 -0.2622227081198803 -0.077536783377094687 -0.15156207837908511 -0.08305961828518188 0.4009627470758047 0.17786969134486139 0.24026942565812406 -0.13553145277407647;0.25678152113321911 -0.16229494909687181 -0.083445954066396127 -0.063342827504850277 0.42933497891432204 0.092947621182069784 0.13693728360371038 -0.13627049925384996 0.089494457732806287 0.26434420936107583 0.26286827918342065 -0.37174795468674848 0.082005378870428761 -0.049162274731130148 0.062845694599587096 -0.07505592264901835 -0.03118319232403485 -0.010405702970513603 -0.38649970821476304 -0.064889543695286545 0.00038805524897443482 -0.52882950408700857 -0.29129811758149171 0.16440652213545054 -0.056567511059897442 0.034694560032016881 0.1978459228542247 0.1370865737005304 0.45247421337690147 -0.056885790843658607 0.20220840394140446 -0.028384531347197001 -0.28294861676114158 -0.20228775722246145 -0.13350534654807727 -0.065536446637569037 0.13849335291567352 -0.036198294173749646 -0.13847665294520548 -0.059178479750040633 -0.2525443217851927 -0.1250995909082698 -0.011029752373859284 -0.15400957684952293 -0.31124643329418722 0.095167877036523699 0.39934486246558859 0.47830521883657495 -0.15731310314271998 0.2166082512922605 -0.052945373312206584 0.032787449872062481 -0.20574438997294692 -0.19523339352211821 -0.16805810118466485 0.25203240302238977 -0.13262647819788828 0.25964128566690314 0.33617392387287909 0.24458712858122603;0.26154430999776485 -0.11674259002033037 -0.084823695562723775 -0.20275980654053563 0.2902464548662263 -0.14528390542680744 0.1252250660662568 -0.24891663497646435 -0.19916930496785334 -0.034033495412131173 -0.0038387349087822173 -0.04957164215619432 0.2989047271016827 -0.063672331252107028 0.15881952071711714 0.37780351332982304 -0.028119045473534318 -0.15158392647169433 0.2944811984898828 0.060651235230134902 0.12852192271571469 -0.13105164816390674 -0.014337872229400438 -0.43480237259658006 -0.1950590250863575 0.12954156955458979 -0.28242898751546636 0.031511792143468977 -0.084440669826165493 -0.30194358248042819 0.02535729572182014 -0.069622057450927893 -0.35865458732382649 -0.14253773460427063 -0.36315761516048434 0.31616621080875806 0.08435468859074384 -0.046792316976693879 0.1580419517061209 -0.020502873618959805 -0.13891830444696598 -0.28581690524285369 -0.1957320041058625 -0.11923001576473667 0.35379557624881131 0.19458178322795538 -0.38030654376951972 -0.2008179173117855 0.17954466342896608 -0.11284218476863216 -0.26168516217943988 0.21945415414373029 0.036448584173940632 -0.26494361522558829 0.30615762333891505 -0.1046249551250816 -0.36340375795753244 -0.38025332559714498 0.19532511725575952 0.042656405967144519;-0.036896507293701586 0.069675960968781966 0.053890577372691331 0.1927371380396313 -0.27843500752717176 -0.072456314486638473 0.19404467301316156 0.2451868604316812 -0.37261838591309171 -0.053493596426355955 -0.35903718542232371 0.020912458471743854 0.24222721864810057 -0.041518962001655425 -0.20742065873504031 0.15440078097077103 -0.54421508981001177 0.30212430292849102 -0.19411599943590629 0.077393376045746379 -0.36824141711485547 0.22169052161218947 0.28055235630354836 0.22631458369728108 0.58039154506018309 0.1620940581648912 0.022894023170818952 -0.10125784169737924 -0.16372847391217443 -0.17437614745086022 -0.12475027232553541 0.053988998255000198 -0.36678838669838199 0.07576801560213281 0.44667865390049255 0.20426959080248425 0.13508719360659596 -0.1897007550646081 0.14850773504683337 -0.31327281055272688 -0.12563934480795508 0.18779703326966593 0.1189891267594903 -0.18085419402943675 -0.18581816781813845 -0.014928735645921724 -0.16558728011215773 -0.23226423576518271 -0.087473881028261855 -0.062063144222809778 -0.41344573105137833 0.063035814896688247 -0.019125541562430747 -0.218774940231763 0.14646625498970631 -0.39224069423711722 0.22166544361358365 0.0061629169678395386 0.098640954942816439 -0.023730978240206004;0.11634228600402191 0.57078294514009498 0.0010087970201700623 -0.32172264963851915 -0.18981001603221515 0.085088609547957342 -0.22112389311003433 0.24820007449745946 -0.17789295433940949 0.1391264102680137 -0.1450547036538524 -0.029880910774609457 0.096312134488749493 -0.28430270123476969 -0.21032315073079605 0.49885380307361488 0.10627721814092769 0.11115065914261596 0.27643023837550779 0.27159256065558457 -0.076927829492926786 0.32326921120262214 -0.12265182323078049 0.045376018486285384 -0.29126874083867865 0.055748660808720527 0.010849477149871075 -0.29358870978454049 0.26891648234351523 0.10917672703946035 0.23551154484270517 -0.3350225552224812 -0.47499493015311572 -0.44577531101856205 0.31010868363845434 0.012900314204953876 0.58090811662033304 -0.047928862832485257 -0.18954123295755704 -0.31652734617959322 0.05937503679214759 0.21443216761661435 -0.098138717020588684 0.18808032697621677 -0.058081439106063872 -0.23261077744674097 0.12276917658924573 -0.52876224341276201 -0.57041091235281716 -0.40925589046867639 0.0014887993762004049 -0.016258375239423119 0.16043882873839582 -0.020256966069997731 0.12556264567962511 -0.12577114105842832 -0.31371100811201391 -0.30635253931609419 -0.4578130532803108 -0.19343519493780134;-0.51764533535097212 -0.28201480762536668 -0.32029781852750167 0.017817192177669298 0.15572971108334205 -0.53999248748793882 0.10122753061959365 -0.1300119292819274 -0.046911341664140231 -0.20011083895736675 0.38735263168559997 -0.35437817621970408 0.0068869537953988331 0.1350849680238434 0.51498816613485998 0.26365087085206307 -0.29213540618758982 -0.39134997527796 0.0090620818036437831 -0.25900945646993456 0.086122704393036736 -0.13707581052819551 -0.17770231823632532 0.047724454097214826 -0.45420021344963829 -0.32479902111538683 0.25851877196116418 0.28788491734996913 0.040468190886919574 0.057235520627231154 -0.25498747456649468 -0.1732171042091506 0.080444680681500444 -0.08177628417731013 -0.17934599934816878 -0.025431351384456409 0.14577784949400144 0.41030763760530536 -0.12027271142576865 0.037370509269065107 0.1363942879517778 -0.019977293917341814 -0.21054601037848455 0.27141203893748722 -0.14290277263426904 0.061276863358195037 -0.077226112364777472 0.28901451055669491 -0.3512017910962773 -0.36774961469316919 0.17562352513295099 0.18572600702563188 0.18566505999100261 0.079963480052110958 0.12778874710916338 -0.1333710906391887 -0.13944800988379227 -0.20331754017356682 0.039017527509508793 -0.34203731989482666;-0.11477588950572593 -0.009728908470220626 0.32244741467559696 0.29554265352716647 -0.1386757593673725 0.24978788212431557 0.20433302397376865 -0.16909284951418319 -0.28205836839504911 -0.21588941627419264 0.24372995788160765 0.17981355502564514 -0.17540615829799935 -0.21931262505675986 0.019470824032318732 -0.22797408455067317 -0.19782848804719055 -0.25950158253984351 0.25162914194240815 0.23868069960342406 -0.0057308070890526603 0.013805875561617297 -0.13974133761928917 -0.045209350313770651 -0.29892389464719832 0.051469508654767383 0.32212609266352316 0.21589530675864746 -0.24910090490670014 -0.48250379067874688 -0.11745333794671893 -0.001871065215607268 -0.2023402061923788 -0.051523201491865442 0.13757075353142315 0.18700142762901012 0.22998964902317295 -0.091203427077051452 0.33349034548453144 0.018289579081102576 -0.2958138736296117 -0.11507465855267741 -0.16781400222261786 -0.10909433569087482 0.10331724567164502 -0.15936485318144619 -0.032106479135078032 -0.024907118453220824 -0.025744521057129439 0.038128401721084851 -0.048093372979247713 -0.304166888544249 -0.15103689921711591 -0.23695666791588807 -0.087051888431211102 -0.29272809807209987 -0.054057831204137922 0.32334865482403341 -0.23327902590592756 0.20247763216244022;-0.43250753824600147 -0.20438063250065736 -0.3264806038599683 -0.46308860451669609 0.1991278442925003 0.15721924937806606 0.070150746471472097 -0.2723917723322522 -0.22722004014686289 0.42848679974770104 -0.4081978433066728 -0.33204159546130424 -0.092843889017633213 -0.30765609250182252 0.52520175202576469 -0.048250512781765439 -0.49169525124555769 0.17265791427117333 0.19247392641955993 -0.20210913680215919 0.18019631657361321 0.030522217507528496 -0.33288213965095947 -0.11741342449029794 -0.40758643719305876 0.16755394859662448 -0.010069420124340086 -0.17690445401557733 0.34337009974232696 -0.11818677333733699 0.5589635382389434 0.25859744271843055 -0.081001739048111185 -0.31940325199524511 0.25088079387471662 0.054416200968256029 0.39770819705125943 -0.7203000185406534 0.26620629387960965 0.28709980151065745 -0.058629154334226379 -0.1738584743256911 -0.094513012382681935 0.25934405357048262 -0.11843757664693937 -0.21350009280399496 0.38232949488956652 -0.086372702371486004 0.09721609139398521 0.070103963808467812 0.14598457825149189 -0.24852639781480251 0.25793947999737737 -0.24510472308972928 -0.08158135994895778 0.21231530948563906 -0.37671801636860913 -0.085992112305538174 -0.17250988865925931 0.28239842437108681;-0.18261973529105016 -0.0081327618681761738 0.24221675404376197 0.0056642506885916013 0.40061780655200796 -0.31977663110935917 0.015960071822327435 0.10943706988333796 -0.18699402072779184 -0.16588205710429377 -0.0053290973869126882 -0.38785976694765545 -0.26397035002851416 -0.048200844797898421 -0.23040808159258297 0.26766075751591767 -0.20143324891619879 0.20061286768534536 -0.055970470181403172 0.063919397841991646 0.13920337229885188 -0.015230245346447773 0.029378915186443973 -0.42771300298858755 0.10463845484789219 0.094465830147501775 0.36233841802307565 0.17809065991176676 0.19972935512336717 0.0031256217226603832 -0.066339986185545985 0.094762216332473823 -0.16340526239448155 0.094055117713946063 0.040945721817038219 -0.17054208323446785 -0.17200995966625457 -0.15952107174469141 0.34393463582702538 0.29411511231302639 -0.36598046855465671 -0.12239092408025307 -0.081529791742286958 -0.46884515492885048 0.056390126489628004 0.32836620934188127 0.12143070794288717 -0.051459670675779286 -0.095466288122151799 0.011065736774348462 -0.12587017628687031 -0.22569881601025107 0.23618098574978078 -0.027442494561615707 0.21172370390466042 0.23320494642814185 0.1476232175034134 -0.20890346590996514 0.27909295746424001 0.032508126043222188;0.32220043704320922 0.12084944208206794 0.14217478135259462 -0.23741364522132113 -0.20062169909045771 0.07005296340289921 0.24988119555572075 0.10978793552557334 0.10078098616132242 0.058592559610405312 0.16315174278662353 0.29788928534454245 -0.02978747918016807 -0.27724884421816065 -0.097789829551897592 0.049634667161194856 0.28555496144029341 0.34366850783297881 -0.02519103274262174 0.0098286995311700088 -0.26783809761707655 -0.22860451439697566 -0.08145584883330316 -0.00354436365147664 0.1867116337466575 -0.14375767866611663 -0.001695370484422525 -0.21973045017613191 -0.022969029265040439 0.16372120412217769 0.37579058113280911 -0.087357661531777903 -0.10076818323189128 -0.23524932803763851 0.0046569014841187934 -0.18877547724249116 -0.027923368202888259 -0.28568960474048011 0.25202495377429346 0.3492659227818084 -0.036265244408088822 0.23009320365136388 -0.017683248904869903 -0.16758604087208429 0.013271538388877605 0.01968865131291633 0.0032500238405212037 0.12787949565558751 0.0061857611734923486 0.25985003510594301 -0.25953622215380662 -0.32656191425636488 0.11989495915267689 0.23850726175041637 -0.16520447482702674 0.073590645681088973 -0.12682965330793389 -0.26886008280102969 -0.34203629795473722 -0.28653002135259381;-0.30550566058327744 0.21748026874539783 -0.20037289551971049 -0.1464456915334782 0.12777486786813821 -0.0056576001526574392 0.18885805046314361 0.0035376653464446388 0.23601865081786405 -0.11717617036401126 0.045675189153273378 -0.1441287190138251 0.030412932906231583 0.29769532566640261 0.048733202906765895 -0.20575574884214909 0.089361783768331593 0.18926197844473425 -0.11503669830546409 -0.25777961122600751 -0.31030690722129317 0.15411555313708813 -0.10585139839902728 -0.31097776905369051 0.25528759012033247 0.18059751392308057 0.26706972792948253 -0.056934239811736204 -0.21020054649460854 0.19820904326459157 0.20382200558395464 0.17988755095202563 -0.15282799292534827 -0.0061244518383297116 0.2068697164206984 0.16035064734846383 -0.10047567328721087 0.30665893833691538 0.10554680101379704 0.32277855024843 -0.06025825121383848 -0.071498421526065142 -0.26583791038787163 -0.077768776144517077 -0.31736125037482737 -0.057678987621521148 0.102894174056105 -0.1207168546957768 -0.14837763609979293 -0.10789566023175064 0.30308158667158674 0.30304721720315508 0.20261886436121196 0.11258277718591508 -0.10976236619704785 -0.082601132170836061 -0.26444519154538215 0.29089726647992592 0.243298366456451 -0.11339581746180449;-0.20773262117878791 0.20875480443540442 0.27158902413690483 -0.098108720911324276 -0.16121447133469252 0.0058095457464115586 -0.057877446961251723 0.32213136377480384 -0.16888818619900811 0.33115953064068004 -0.31790932696192964 0.11371912720228097 0.099770410961404085 -0.026155056244753009 0.0050979462411514824 0.33610239048747609 -0.079797625044302198 0.21526880599998857 0.0012209785929313006 0.2295440734179332 -0.04389341768670111 0.2301520645877935 -0.28906499955315323 -0.12916182544497648 0.036123699001590903 0.040622760225273447 -0.31144460771985405 0.0041034834025925277 -0.19837431516045653 0.094589267424341733 -0.29221435901341009 0.16338786532573379 -0.13979303348349054 0.024317556663726196 0.026578654357777568 -0.091102490495643326 -0.23117400519125234 0.28401401191221121 -0.23621628832660763 0.18130062167917652 0.27434966227016078 0.12300057577218007 -0.29869713766541761 -0.094952028607990221 0.020566257450174517 0.22406708687380503 0.27802616988801321 0.042608768629043954 0.27961040302718765 -0.11752215995952352 0.21133235037413292 -0.020655808947478312 0.24454776527512154 0.30916329526844971 0.22241522393056465 -0.27055853055941298 -0.062942447700613302 -0.081625719913665726 -0.2228529727669418 -0.05968780999474968;0.39892103127748307 0.18383948652688561 0.35780423658771032 -0.34630667098527607 0.14056653054288568 0.067027736228163354 0.10052036701128331 0.33732716260297557 -0.32893614185444686 -0.13802386743218328 -0.30023047507259887 0.33488076117895227 -0.052977818038982973 -0.082098447142331721 0.50009826807017066 -0.14666377934944935 0.0041313013303644446 -0.22307310403743685 -0.19895750155984901 -0.045946059041510522 -0.71072437131818522 -0.40177582148490365 0.1243312695377544 0.090379243333799333 -0.49442289519666827 -0.052943996658314951 0.40935026086133647 -0.048538508754510844 0.20347000561341755 0.15656383269622298 -0.062145553236876858 -0.12808339959242138 0.0072219696014835071 0.37797398676172028 -0.31599910167204703 -0.15261135296994544 0.12672856893696854 0.11109318377386163 0.18705657806475084 0.41505232931467212 -0.019940212619749511 0.35204456328603295 0.33352483616403972 0.33267933982979864 -0.29075696442132071 0.042394047702084776 0.077076059304105674 0.28532497651838068 -0.16017478228883308 0.077687238324940455 -0.27651429810763828 0.069868864813787832 -0.15826240213596893 -0.28351067607295422 -0.1720068180025815 0.20599485605632895 -0.020215915608827052 -0.33776634448642012 0.13245337869677751 0.2414224172853594;0.12627172487362318 0.17638920164964439 0.039213774349945406 -0.14350136767226532 0.27194965997450649 -0.34483282049850089 0.1520877948120172 -0.13576909642049584 -0.022172633705008639 -0.12218315564338525 -0.17222735332037592 0.0060502039455024095 0.0309240318997018 -0.15792258804132139 -0.096603678060773454 -0.22913513880927852 0.044333083391777273 0.35997938045440547 -0.20858736637875505 -0.014105179226040994 0.11131904786702576 -0.058521463587584588 -0.14898405984401639 -0.17758400818867565 -0.1352438249238275 0.34359313022702387 0.28516175203405036 -0.037055537706602554 0.010727511603375777 0.10538071964232065 0.37022546296314851 -0.2012118679609726 -0.2417567744557661 0.2234300560759987 0.13570888711815701 -0.21682318325797278 -0.2617756829102667 0.21985451484087848 -0.27976996195009035 -0.2830857558037429 -0.20207466013146699 0.054331636400206454 -0.17864325701568814 -0.096484495035973478 -0.08406465301071879 -0.14151534127211962 -0.40436710597292796 -0.36162615122688418 -0.19182212138024662 -0.22882263518065118 -0.12890936367356626 0.39020460339561103 0.0075377945189073672 0.073323376967086809 -0.38207591258272161 -0.084462357957065443 0.26941063943334986 -0.42744066193943026 -0.0040260609041849228 0.15747837097432235;0.011440525786327151 0.15909638686972158 -0.061548967331520051 0.16086357402565896 -0.016831717285474605 0.12435455102789177 0.15583717509505121 -0.2243103448690334 0.35069014133587822 0.37175137140986153 -0.25598849642881349 -0.029408301782146838 -0.028439037178465212 -0.085156438572979734 0.0080698662411994044 -0.071128538432096558 0.092021496524680987 0.028099285161533014 -0.1814810794697827 0.13234909152529328 0.33147453651103986 -0.31815618697053555 -0.16409377443650244 -0.038904469435909243 0.3402652211462 -0.15405373293396879 0.21388394152554316 0.081841639958995058 -0.19348725532279465 -0.0099111179075804592 0.09331061665390239 -0.0094795990429858909 -0.072055105204048661 -0.011203388451541535 0.052590551543815596 0.39382130674913457 -0.045886313653873502 0.23762392471708793 -0.063962389252594301 0.23997286794723713 -0.31066177186634852 -0.24243719360003546 -0.25923918944455754 -0.17293352684394292 0.059924517790455704 -0.17442585971377328 0.07510045656659306 0.26151622001693009 0.25545219588625268 -0.19739934747295459 0.074626434826158508 -0.045487195581234902 -0.2370684025045775 0.20676272706674623 -0.25714379668967047 -0.33528515214691929 0.17475325752022472 0.27216117820017693 -0.27471581002996887 0.32888971036053694;-0.23727354712828044 0.080329041370574117 -0.083888014343647579 0.17082903593579213 -0.2515051321864929 0.23304277644360033 0.30871662121981541 -0.092693338966744698 0.12665446245319287 0.1403402354161371 0.084576359156538564 -0.3356745202145941 0.37857951300927412 -0.21445456861239129 0.050564810114883854 -0.27217284297330124 0.081649616565488886 0.27160744674620546 -0.16028575552010466 0.092586271738194226 -0.23535424720467679 0.15675854312275236 0.13640324724132527 0.11710521757651535 -0.15368691927556252 0.27721416700387574 -0.17658747762120708 -0.071169742349321705 -0.081682145537413348 -0.029351523459371996 0.0091039212451979011 0.32013745752378364 -0.24669277983630425 -0.2712628169163781 -0.090852374385479079 -0.21919543414032794 -0.17049689590529257 0.23702971448052665 -0.28561066215888697 -0.3265785456036544 -0.073770123746155547 -0.14585655248250851 0.29810977520612242 0.00042880879705613217 0.1144331247951943 0.081793054792995271 -0.087326631031082652 0.23490254159458038 -0.2505951227425402 -0.059601267764913056 0.11215036325868069 0.25991930945105723 -0.25465976263426465 -0.27245076016440373 0.19820829836324436 -0.11967156807553564 -0.33885347397644738 -0.15324354348226851 0.080552475272594348 0.15244836164633285;-0.057401501323709067 0.14755744724041725 -0.30505843176257846 0.06393743488159942 0.069912231178466386 -0.17883684810039452 0.43470678018530434 0.010444964884002223 0.2338874893236394 -0.08056354787838059 -0.073532815144761593 -0.23961867514534754 -0.013379073592282036 0.33539478747084533 0.33647771679442157 -0.19423893340323092 -0.21397800356208035 -0.33809747731025552 0.10139068164836099 -0.33662064628086441 0.074696361924956309 -0.14921631263252066 0.081713502498843404 0.034811887324791471 -0.041822142043584372 0.031808131008604891 0.17988034936321567 0.24140200539075563 -0.18096416069432969 0.14539498501729364 0.054913432503161407 -0.027849079923957524 -0.11199998416237822 -0.20044766847080911 -0.079794641377919168 -0.13333722676451298 0.31152565229361956 -0.19720131891678275 -0.019941073370729513 0.1891099675818271 0.28633812971758027 0.033279831416649572 -0.18939074266299447 0.064499582160962438 0.25365845554711886 -0.1181612885518423 -0.22012418078425566 0.0044754743755034713 0.31196649577907865 0.16885522227787567 0.28311199621389727 -0.023144994184747615 -0.19747393376362338 -0.28959608225320277 0.17884441317338104 -0.38188483003555401 -0.070996970360074629 0.066346481492893433 -0.05345857341021578 -0.27851085612994558];
  
  % Layer 2
  b2 = 0.46839287574031541;
  LW2_1 = [-0.018461189346886432 0.59487360760300745 -1.2970477833951548 -0.07749547554527339 0.62768714317405405 0.69277044749243122 0.47561985029490589 -0.22065185793616829 -0.32991206088460534 -0.70432329082984613 0.80826650469494221 -0.33154152909703272 -0.62542560080343146 1.1736839953274392 -0.9128452309341244 -0.77236450800960055 0.45002211854220631 -0.76141996859284677 0.16963715118235601 0.43223752536003363 -0.25742676468858272 -0.3324784489469596 0.87985864310580997 -0.61353079330414495 0.69035657247522364 0.59573135211277095 0.1155803006555359 -0.068041513704991605 -0.24862293977497826 -1.2394468396834857 -0.077943222398359005 0.10093087252965464 0.55107028073917286 -0.6033821550423164 0.75966513454969919 -0.48407653641272402 -0.5668366213765027 0.95213895816877991 0.65605561684756064 0.37491408198954929 -1.0294810629027402 0.52935393421287058 -0.13567963395404656 0.0080421934819959861 0.048101123799509642 0.56855851687449732 -0.57441852160197282 0.21735061755718293 0.70647054851644631 -0.00075820757016978205];
  
  % Output 1
  y1_step1_ymin = -1;
  y1_step1_gain = 1;
  y1_step1_xoffset = -1;
  
  % ===== SIMULATION ========
  
  % Dimensions
  Q = size(x1,2); % samples
  
  % Input 1
  xp1 = mapminmax_apply(x1,x1_step1_gain,x1_step1_xoffset,x1_step1_ymin);
  
  % Layer 1
  a1 = tansig_apply(repmat(b1,1,Q) + IW1_1*xp1);
  
  % Layer 2
  a2 = repmat(b2,1,Q) + LW2_1*a1;
  
  % Output 1
  y1 = mapminmax_reverse(a2,y1_step1_gain,y1_step1_xoffset,y1_step1_ymin);
end

% ===== MODULE FUNCTIONS ========

% Map Minimum and Maximum Input Processing Function
function y = mapminmax_apply(x,settings_gain,settings_xoffset,settings_ymin)
  y = bsxfun(@minus,x,settings_xoffset);
  y = bsxfun(@times,y,settings_gain);
  y = bsxfun(@plus,y,settings_ymin);
end

% Sigmoid Symmetric Transfer Function
function a = tansig_apply(n)
  a = 2 ./ (1 + exp(-2*n)) - 1;
end

% Map Minimum and Maximum Output Reverse-Processing Function
function x = mapminmax_reverse(y,settings_gain,settings_xoffset,settings_ymin)
  x = bsxfun(@minus,y,settings_ymin);
  x = bsxfun(@rdivide,x,settings_gain);
  x = bsxfun(@plus,x,settings_xoffset);
end
